0.000000000000000000e+00
0.000000000000000000e+00
0.000000000000000000e+00
0.000000000000000000e+00
0.000000000000000000e+00
0.000000000000000000e+00
7.011454306586720501e-05
-3.842208241059235350e-05
-2.345097435834339356e-04
-4.255364793005447961e-03
-3.682015087921955161e-04
7.285318814340782136e-03
-6.795656543121726700e-05
-3.667894327503309866e-05
2.291689610902362029e-04
-4.257474309616186663e-03
3.599843534983756328e-04
7.288416789038978938e-03
-5.305062230715792638e-06
5.103776973633765043e-07
-5.555860276409215100e-05
-3.788545902898029334e-05
-3.213813903321535163e-06
2.835454522214476904e-05
5.280359352223622013e-06
5.391797389435918880e-07
5.570145184583269601e-05
-3.795820793054991240e-05
3.277024029744979826e-06
2.833937313978710892e-05
-5.305062230715792638e-06
5.103776973633765043e-07
-5.555860276409215100e-05
1.019227865197597666e-04
-8.067056723226658446e-07
-6.480977271968905258e-05
5.280359352223622013e-06
5.391797389435918880e-07
5.570145184583269601e-05
1.018191008952287584e-04
6.840402274382244123e-07
-6.477756352340780779e-05
